{
    "input_neurons": 49,
    "hidden_neurons": 20,
    "output_neurons": 15,
    "learning_rate": 0.5,
    "input_hidden_weight": [
        [
            -0.4218617912369411,
            0.409991711707934,
            0.0629927423994536,
            0.1813751547919117,
            0.3823187726883355,
            -0.046381653546960167,
            0.010331699642257728,
            -0.29331143056422654,
            0.05262928117928977,
            0.455021763101529,
            0.2748567468407551,
            0.08091605026634953,
            -0.4802115373413743,
            -0.5451019130345309,
            0.1263674602692595,
            0.5716270644553588,
            -0.11485615744226012,
            0.38906614613928237,
            -0.13787142077901793,
            -0.3689994494975938,
            0.16438012340645677,
            0.6291702719169716,
            -0.21788321601988664,
            -0.03576097613959977,
            0.42833378111777937,
            -0.22025781877773465,
            0.37617374241078383,
            0.47540381858405456,
            0.05020589107618376,
            -0.7004491087020699,
            -0.7734964466006897,
            0.12427123692820427,
            -0.08353657102109045,
            0.09865322813405443,
            -0.4553033395140651,
            0.5289222279959925,
            0.5400782217311915,
            -0.014655410231996992,
            -0.0058004195388845076,
            -0.24707025456352677,
            -0.36992189745769777,
            -0.2460196475606685,
            0.22862187714730306,
            0.33108928696694684,
            0.5993135694581868,
            0.6266542785255443,
            -0.03499235193629112,
            0.4208340181472855,
            -0.31453737786983615
        ],
        [
            0.22396734593683124,
            -0.3538402805231399,
            -0.0026367470965836357,
            0.16024460417515257,
            -0.032667949450016096,
            -0.52438286921631,
            -0.7723485237436792,
            -1.0361299267649193,
            -0.6782029352217162,
            0.30297943952506157,
            0.32542484865267335,
            0.5821347901043211,
            -0.15721042861141907,
            -1.1122654901905706,
            -0.5489236092455921,
            -0.5638962830067449,
            0.12189389710298408,
            1.0402672298177345,
            0.6099679603834978,
            0.7515163128707761,
            0.185611799037435,
            0.4514102631665267,
            -0.34964439236301403,
            -0.11820160163928355,
            0.14481402167735663,
            -0.11362000236032908,
            -0.2594044289322171,
            -0.5023390164309551,
            -0.19477199370312404,
            -0.2503840677869371,
            -0.6811252133610961,
            -0.5125169315437735,
            -0.21056370773514463,
            0.11432569959523917,
            0.559408135739151,
            0.010405674265484985,
            -0.5986226833662732,
            0.06996270976426969,
            0.7594276729892665,
            0.9649627830668182,
            0.7575054309001441,
            0.36934231259216627,
            0.2799850582468801,
            -0.9362991205079538,
            0.5504390530713017,
            0.15560557341328757,
            0.2934055185545781,
            0.32200532830358863,
            0.20562639129986798
        ],
        [
            -0.3590149103520571,
            -0.08346161417639697,
            -0.3603268313754223,
            0.2848915490888791,
            0.5558441936756932,
            -0.17482547987808614,
            0.17572858647246709,
            0.23600469719783582,
            0.1327291929412306,
            0.3301540539884663,
            -0.4361055693281721,
            0.3481715156420244,
            -0.47932075331437496,
            -0.08019021707217835,
            -0.413263185017811,
            0.25180848042284626,
            -0.1532631892559855,
            -0.46650225216197383,
            -0.1542693789640439,
            -0.43362510913123753,
            -0.10663264501203863,
            -0.3838463203102338,
            0.7456815274510714,
            0.15946853034864394,
            -0.6685019200208591,
            0.34938160202278595,
            0.4150321550062386,
            -0.5009458685185403,
            1.0443377001422869,
            2.414361833402996,
            0.7493733192293344,
            -0.27399430158054766,
            0.16810654605304004,
            1.613386325412241,
            0.6350719728472098,
            -0.07973400808555897,
            0.3084448840385723,
            0.1482103745248957,
            -0.009550432454390438,
            -0.37378693178865346,
            0.6690601637409843,
            0.22748018902069714,
            0.04655408754970107,
            -0.7897126227966409,
            -1.6202783725772216,
            -1.5673269711794724,
            0.04108734600937854,
            -0.7310354377239254,
            -0.5044804367345038
        ],
        [
            -0.13547068074570856,
            -0.607700544084164,
            -0.5985607415709492,
            -0.5869408827066017,
            0.09616839219309813,
            -0.39300343923139086,
            -0.2918355736627903,
            -0.5134815555566452,
            -0.22288520426593963,
            0.45999513709012807,
            0.7333067272970855,
            0.775046805847235,
            -0.3254891092296073,
            -1.3444445368468285,
            0.2782849281437885,
            1.0438563904562561,
            0.9170465989885477,
            -0.040608304877148275,
            0.7334674141180556,
            0.4121863757281786,
            0.5973062345865681,
            -0.5129123736462364,
            -0.2875710216692523,
            0.42662818339569547,
            0.5112893968726293,
            0.5848074734254961,
            -0.02841105218624287,
            0.04165982347866883,
            -0.9392069335978216,
            -0.3219078009085234,
            -0.23264226207011193,
            -0.6782266059749757,
            -0.9678868268258651,
            -0.6394059337047224,
            -0.087519057411812,
            -0.1410521513535009,
            -1.935759933822257,
            -1.6794484485452443,
            -0.5102306313484788,
            -1.7556204036428884,
            -0.9564324615943813,
            0.21518395787836309,
            0.19531120519943537,
            -1.227805183849889,
            -0.3987000609766712,
            0.040298105952093,
            -0.4125342080475412,
            -0.4978681114207125,
            -0.021046154168807014
        ],
        [
            0.4504002208726313,
            0.06991192443976697,
            -0.07974468016418224,
            -0.07018891676590708,
            0.04900555831192921,
            0.13337034155550878,
            0.2958553250591112,
            1.0160311613251023,
            0.17295097775309812,
            -0.3692437555471984,
            0.342424579041945,
            -0.5174295130443322,
            0.5719172623606761,
            0.02269005908342518,
            0.5035192621307722,
            0.3419742334312474,
            -0.47390983025901345,
            0.09873360197760403,
            -0.8100044973242538,
            1.3699043008062297,
            0.6438719308959552,
            0.22432713548433408,
            0.8958702909575063,
            -0.7524314607858315,
            -0.897880550822687,
            -0.671605470199949,
            0.3490404613872005,
            -0.19290482121847757,
            0.7765133990043563,
            0.27028274900303256,
            -0.028579218897619215,
            -1.0371745972184294,
            0.048399655321481924,
            0.2897386151821244,
            -0.604878760778,
            -0.3670742742894148,
            0.7281332338391344,
            -0.17152076164042415,
            0.8066062144745807,
            0.20165934283749257,
            -1.2901566985833886,
            -0.38728723270244414,
            0.010242713944009342,
            -0.6236677765695942,
            0.8588736817925461,
            0.42784348858683546,
            0.14450888714359028,
            0.1072336998403324,
            -0.38933037509188784
        ],
        [
            0.19222725500888646,
            0.042478473315610325,
            -0.29300191483412286,
            -0.5886118908433076,
            -0.11869252187372845,
            1.2720264859072785,
            -0.34002587418173874,
            0.7234161525953059,
            0.23643484184625285,
            -0.5150725008121858,
            0.5746555227475751,
            -0.07328435954756178,
            2.4303078019775817,
            1.4212168279336566,
            0.13764898315595753,
            1.1646340128855628,
            -0.18777467917151294,
            -0.6226477723358659,
            -0.33269849561168213,
            -0.046272861070003606,
            -0.28315561414828544,
            0.4968209771894224,
            -0.5396358961677913,
            0.3130455971354362,
            -0.4044444842051234,
            -1.7583625723355536,
            -2.3242019116077435,
            -1.0418974265452674,
            0.7688694788627222,
            -0.536749766245184,
            -0.09911844219331861,
            -0.1636398576161473,
            -0.5640147262828659,
            -0.9741008933102921,
            0.3416477951876524,
            -0.4823105240636539,
            0.3588058907001731,
            0.990381980633405,
            0.10545809288024807,
            1.3999643829234825,
            0.4072769839461449,
            0.37764380453199337,
            0.043747346806832746,
            -0.4752678921204413,
            -0.35610461720190617,
            0.3101156969393239,
            0.05381809614826643,
            -0.35423543502996124,
            -0.4327398583938194
        ],
        [
            0.41361957733668225,
            -0.8061982814400027,
            0.06801831794814922,
            -0.20867690450784007,
            -0.06953089774654078,
            -0.14908374874014613,
            0.3637198165427233,
            -0.47541155967056653,
            -1.1757522797475375,
            0.5058575328101915,
            0.15746497456381667,
            0.26108091413435075,
            -0.10950794910427562,
            -0.13556163066464683,
            0.12014519324418467,
            -0.05576581981060479,
            0.16765987816712613,
            0.9860479719385671,
            -0.026315225044138472,
            0.6087820504282064,
            0.4412813656309615,
            -0.2863236827012509,
            -0.1732913515275689,
            0.18992578427499893,
            0.38592870502518284,
            0.38650950332668105,
            0.5236805366377384,
            0.2957436388648892,
            0.13824919846163303,
            0.9172796483245456,
            -0.5099375388773998,
            -0.3291020281069341,
            -0.43500281577069616,
            -0.014253112475384463,
            0.41316207173940017,
            -0.1136446346055279,
            0.5153810663382751,
            -0.22831382086551766,
            -1.2288823646877582,
            -0.22259641166321312,
            -0.04951264281552804,
            0.35586272477022096,
            -0.541148263550068,
            0.0045879609258673605,
            -0.6247044074131244,
            -0.6611604817077397,
            0.38864608893492775,
            -0.1030489045587593,
            0.16687954305470876
        ],
        [
            0.21339115435986647,
            -0.6333605750034469,
            0.21378752822509325,
            0.15350882901326146,
            -0.4938774583817172,
            -0.31210009082882806,
            -0.3808958756599439,
            -0.4489362606082171,
            -1.727579383059954,
            0.16805608284226126,
            0.12242503515261816,
            0.39277141476375926,
            -0.7319163375221057,
            -0.3030276169679099,
            -0.5058232283816859,
            -0.5308170155388251,
            0.5972945663060599,
            -0.028457931629408816,
            0.326467856843375,
            0.16950599728172358,
            0.1313832122774457,
            0.38639404380746906,
            -1.0050418129562289,
            -0.22356779874611238,
            -0.2690999633304876,
            -0.14254645876162506,
            -0.5245637984245723,
            -0.202639194815442,
            -0.4716511291586081,
            -0.804293201620886,
            -0.9588841342207642,
            0.547674949308866,
            0.3771804987287317,
            0.18729067219633666,
            0.6551864888821947,
            -0.6444452309835521,
            -0.030949812247752815,
            0.4037384325476068,
            0.8369784495614134,
            0.843723067019013,
            0.6631682986863563,
            -0.2531278390015932,
            0.08969128017156806,
            0.30031435610716767,
            0.45879784933225504,
            1.3112984727012242,
            0.5476112792756184,
            -0.027387096918733263,
            0.18013883733901484
        ],
        [
            -0.0436639455332478,
            0.5804676838936467,
            0.5099150079305449,
            0.9901291244532048,
            -0.13518454602863825,
            -0.36639615557403404,
            -0.0565502692718689,
            0.6036942567643744,
            1.4684675160751735,
            0.8315176226408868,
            -0.17872556134171658,
            0.04625704341451953,
            0.2544107928619647,
            -0.28612676293542655,
            -0.016701369986691778,
            0.3562749247462304,
            -0.5451286233348679,
            -0.4719813202657823,
            0.33847769871305344,
            -0.06087538925080298,
            0.1473595987827805,
            0.10274558001436385,
            -0.5074789605896433,
            0.033389649493917845,
            -0.17422655114456204,
            0.49315783804276353,
            0.1815981088501947,
            -0.31571839952084857,
            -0.20821322022727487,
            -0.12601064833617187,
            0.7144004577974628,
            0.7808245830779277,
            0.24536793959835027,
            0.12189778448000917,
            0.019641474790759464,
            0.5617028755868775,
            -1.019209835548136,
            -1.3215096420920533,
            -0.7534487748127776,
            -0.0295712891621695,
            0.20442469181947323,
            -0.07800788014116848,
            0.03850210030970277,
            0.6318665983876691,
            -0.9016338260304184,
            -1.6067172953477953,
            -0.5056237265445865,
            0.04530316679002409,
            -0.2785777755094746
        ],
        [
            0.10177555375952467,
            0.02881905180504907,
            0.11359099675749515,
            -0.23095185011596683,
            -0.023182580125650106,
            0.06621095724321703,
            -0.22149293863185093,
            0.2775170810310356,
            0.6744625454841107,
            -0.6607506016213897,
            -0.5904048467546535,
            -0.2991469551681433,
            0.9057994069606795,
            1.0120544962310862,
            0.33248753155030575,
            0.3526902131145675,
            0.4316451067680458,
            0.1813064277923776,
            0.032069040065699106,
            0.022801595486260384,
            -0.1114453972620302,
            0.7264564618739852,
            1.0709481480248872,
            0.9358114891347045,
            -0.02639788775908087,
            -0.33536898171090346,
            -0.6486504273305614,
            -0.6773769322350409,
            0.21560028408089218,
            -0.8368664457540238,
            0.5885685383143291,
            -0.05906797266908315,
            -0.3648844196072334,
            -1.3722545605057666,
            -0.393972087485842,
            -0.5560780252665755,
            -1.4715001229875737,
            -0.8538381065078088,
            -0.9263122673418154,
            0.252735344768081,
            0.1552272281078229,
            -0.14985669324713055,
            -0.18156803640878075,
            0.2784314577576279,
            -0.09317568433394706,
            0.4173257773525464,
            0.03449759712288501,
            -0.045551486408064994,
            0.10709956020818308
        ],
        [
            0.2166610841564369,
            0.06916453597754378,
            0.37947641884842914,
            -0.5041437074793913,
            0.6646310340229347,
            0.7227336384820612,
            -0.33401225976298027,
            -0.17866744192127765,
            -0.09488510620472503,
            0.14187169670788247,
            -0.12388227798594631,
            -0.15601478665149004,
            -0.9869425434539081,
            -0.07970165031850977,
            -0.4532432632103292,
            0.6243753308054956,
            0.07057393690443073,
            -0.5816229624430439,
            -0.25467843395261996,
            -0.5814094614405503,
            -0.6921878730548284,
            -0.05848833864648241,
            0.49676812952525534,
            0.3948348242055798,
            0.5033010617359751,
            1.371185805890775,
            1.695957339259117,
            0.5566638501735095,
            -0.11319973939806817,
            -0.30386059196733456,
            -0.7827152364263601,
            0.08236051260117434,
            -0.07195642995825809,
            1.120868084911115,
            0.3322672479558525,
            0.445110246403422,
            0.6507154044139424,
            -0.1167027032936613,
            0.18379205020247932,
            -0.21019625966292335,
            0.2814519446710335,
            -0.2712096883056344,
            -0.18781761865817315,
            0.6459692203381755,
            0.0021151073865382985,
            -0.340521460020167,
            -0.18884942457113868,
            0.37376929498704625,
            -0.20584749684471443
        ],
        [
            0.409946286579562,
            0.590153488719685,
            0.49572012871445514,
            0.955807265778251,
            -0.15947620486388062,
            -0.31675210514919416,
            0.42949259408260987,
            0.6317227314341497,
            0.7724726135759703,
            0.9422062281663066,
            0.05036355775931655,
            0.23617020162174926,
            0.27969631124827266,
            -0.024310971705298196,
            0.1919631930971823,
            0.4619178117138011,
            -0.7312377071049362,
            -0.6794373279433614,
            0.023620311650307698,
            -1.3363459505594821,
            -0.6647378459382631,
            -0.3697466841579578,
            -1.1456825648005695,
            -0.7652907653709465,
            -0.05738360753022471,
            -1.027634172935888,
            -1.4217807392427264,
            -0.4247809355651705,
            -0.7299412712876716,
            -0.2121984003024246,
            -0.41860334112667025,
            -0.12510322946277472,
            -1.4945450341147075,
            -0.4505596223961053,
            -0.0431208300014615,
            0.7195211965557072,
            0.18885977971111736,
            -0.6203913543478053,
            -0.01901745043668347,
            0.049889444594421906,
            0.5619464764216483,
            -0.19912264025251514,
            0.4563253597475215,
            0.6886424681130063,
            -0.5818253853282148,
            -0.6321838325072874,
            0.08923291083847182,
            0.02437629638996168,
            0.3857734121796815
        ],
        [
            0.1996847677701062,
            0.45845613305159205,
            0.4130339849419411,
            -0.6341529310611106,
            -2.273493134648361,
            -1.2070761844401925,
            0.1788275189034969,
            0.5504371137269244,
            -0.10368508433313321,
            -1.0793852983694439,
            -1.6631707957145874,
            -0.47897427228084216,
            -1.3236877604208357,
            -0.5715315444916513,
            -0.1826636935349816,
            -0.18195043502396444,
            0.5237895868829127,
            -0.27590486577206225,
            -0.10620379850676251,
            -0.044801307334368795,
            -0.3471484521747955,
            -0.4405788172261689,
            0.5075535033246821,
            0.8570297642248923,
            -0.3572625961843998,
            0.4884950586780348,
            1.1044242604423302,
            0.8939369368774028,
            -0.3763838981639053,
            0.39237089319840557,
            0.20681624447094968,
            -0.044632284267035166,
            1.9278286043298123,
            0.7410717386462972,
            0.3151700132050138,
            -0.7533244148120501,
            -0.8571097005214904,
            -0.4289106687589413,
            0.6683596345160324,
            -0.2992827585767892,
            -0.2331846453125318,
            0.17888565945446339,
            -0.42630730217800794,
            -0.6387905165395177,
            -0.05484434050272822,
            0.5842963359134599,
            0.38699651994928047,
            -0.1589765234039819,
            -0.37141103796480496
        ],
        [
            -0.24556114388872158,
            -0.1581920877116748,
            -0.5727142528013025,
            -0.1957493647751117,
            -0.9310703585031371,
            -0.8696383613134612,
            0.3097548472212122,
            0.26098961077115707,
            -0.5898725570909402,
            -0.657470084674105,
            -0.065113053381937,
            0.2231089636036135,
            -0.3541705665670854,
            -0.5853157650157483,
            0.283991371538151,
            -0.4334221030058149,
            0.912161183751188,
            -0.2684070297304185,
            0.4620764975982291,
            0.9501782781485623,
            -0.25847754930392625,
            -0.2639673572150813,
            -0.4153358674212347,
            0.06872838090841087,
            0.5584824077781002,
            0.616450896678675,
            0.4558420430054452,
            -0.4507853559400044,
            -0.7245720986590706,
            -0.09688809617606299,
            -0.3331434922249719,
            -0.15430077544435372,
            0.41567643775469815,
            -0.33995069915882803,
            -0.36556250355471137,
            -0.4037569114852628,
            -1.34310176642405,
            -0.6655938847134096,
            0.11893190727001655,
            -0.7899589500311037,
            -0.22709234379022467,
            -0.31275030615083393,
            -0.29388342442006593,
            -0.8215080230057761,
            -0.629626617465269,
            0.745059824297131,
            -0.3161253523341057,
            0.2071691023006471,
            0.29891077833089225
        ],
        [
            -0.24568955112215213,
            0.03778150261818498,
            0.3923590650224548,
            0.7198701025000488,
            -0.3782756247931005,
            0.35182342162691865,
            -0.15055710484195092,
            0.6488877189259112,
            1.0428065835282427,
            1.4453868182835001,
            0.9470770431012379,
            0.2840986549429491,
            -1.0183305717002584,
            -0.20201740839844853,
            -0.12756797233875128,
            0.8093631866638377,
            -0.5993439850644362,
            0.06258809836591525,
            -0.18673998534677488,
            -0.14376835969195303,
            -0.29196699467659176,
            -0.3651464465742108,
            0.23609382150670224,
            -0.7986617881998076,
            -0.5605085885415021,
            -0.014102971734288544,
            -1.1715506730644958,
            0.7222264347425378,
            -0.08065794560584402,
            0.291486154417217,
            -0.1330742741943356,
            0.08460224587603762,
            -0.682713366346677,
            1.5790184471677697,
            -0.17513104966975698,
            0.36421159756340044,
            0.5691803026273276,
            0.4060814287812474,
            1.010572378354449,
            0.3897158419305815,
            -0.15631860687050678,
            -0.06214839401189856,
            0.11422638745081438,
            -0.2139933076335305,
            0.16597772220665777,
            0.3094941919790086,
            -0.268376269862583,
            0.27071895646186556,
            -0.2992902091734316
        ],
        [
            -0.03809012390843987,
            0.03729811803209959,
            0.11135287233430072,
            0.26382103283212793,
            1.2208249555005402,
            0.8621682215803281,
            0.46401510569235344,
            0.6171972988766583,
            -0.20894146702349492,
            0.6180537344106627,
            0.03763286026710589,
            -0.012338747203976328,
            0.8789996890299162,
            0.5001912428871632,
            -0.26781392215806915,
            -0.5063335417606475,
            0.5113003954794623,
            -1.1381156893127715,
            -0.7478975311694586,
            0.09561683440496441,
            0.05856598750743988,
            -0.6975146373614544,
            -0.4650752181846175,
            0.3416109363536394,
            0.2818741771228516,
            1.0994933487975889,
            1.1080495837740258,
            0.020054543038279558,
            -0.14501118532064614,
            -0.17729050379987898,
            0.3325074513569492,
            0.7583199090678179,
            0.042740486197155016,
            -0.512146369111381,
            -0.6898703796330143,
            0.45013037995904703,
            0.27260133247440793,
            -1.300396406149535,
            -0.48994792621287264,
            -1.3047388571594312,
            -0.9743424812489618,
            -0.33057710227556814,
            -0.007639114936774542,
            0.18473115846617608,
            -0.2020026261517277,
            0.1142836584416156,
            -0.22364176027119526,
            0.03226361754844383,
            -0.044981685109943714
        ],
        [
            0.34756421046570773,
            -0.025723267170361278,
            0.5843043246324403,
            -0.37779355020488226,
            -0.25955419294789567,
            -0.7228235213976179,
            -0.2380670300185033,
            0.24869274651926973,
            -0.08499193879066656,
            -0.790075958284104,
            0.08475308284910342,
            0.6646952975108509,
            0.07256831134905004,
            0.8157736414041783,
            0.8589601994355368,
            0.26061062979287736,
            -0.11357822985593342,
            -0.16802210195075312,
            -0.8296479803232015,
            -0.92745993675742,
            -0.026120382931241734,
            -0.48762098217246663,
            -0.880174439996671,
            0.3057586266135782,
            0.6233486827405139,
            -0.40264354326100366,
            -0.8262693150216428,
            0.0475392619494625,
            0.17108454745574403,
            -0.7107160618068291,
            -0.3255874545982811,
            -0.08022864400726323,
            0.9429749396770157,
            -0.09535505922780402,
            0.8649898657498604,
            0.6567330442429639,
            -0.2515376380453284,
            0.6420414546098081,
            -1.1606543016999138,
            0.3294536837840705,
            0.777536460202501,
            0.3534867600351696,
            0.622839224097273,
            0.4612754531761923,
            -0.06742611781980914,
            0.16160927553542193,
            0.30843200654132097,
            0.03521329653598221,
            -0.46050477327343503
        ],
        [
            0.09318767258250861,
            0.622144605856,
            0.3334309439082445,
            1.0903465262700642,
            1.278008817541148,
            0.27138068941964333,
            0.5553286924835846,
            0.2674219603848067,
            0.4199766697017077,
            0.5076397503557546,
            0.12480446441563735,
            -0.01992845418063716,
            0.2681018522230153,
            -0.2950543496925077,
            -0.3334917138031287,
            -1.2210574388809934,
            -1.4390262978350303,
            0.09443365825735352,
            0.525772587643318,
            -0.3151072156942235,
            0.19678469508257743,
            -0.3923063496173523,
            -0.6836662155908054,
            -0.6998294071341633,
            -0.02475309157916925,
            0.5321917164020468,
            0.5250607763024563,
            0.4017745466210465,
            0.043001390745372986,
            -0.42203219152346233,
            -0.17532690698101966,
            0.5131663174208214,
            -0.4851940724271507,
            0.09589485606202353,
            0.23174425959453954,
            0.2939231543835292,
            1.315745836681855,
            -0.2707162454383894,
            -0.6971649749716073,
            0.6380387433354993,
            0.027329801416025503,
            -0.13264144238761605,
            -0.0032566226884249063,
            1.1825311506110137,
            0.48746009660360173,
            -0.9326878937935753,
            -0.0266857905898901,
            0.6994114759140317,
            -0.3508209285550378
        ],
        [
            0.4733038657346557,
            0.4173629773872354,
            -0.03151984198942682,
            0.7095950086727055,
            -0.14101151833054482,
            0.26975593727353403,
            0.12216948625144572,
            0.826643155387635,
            0.7006304010072377,
            -0.5175333298933604,
            -0.30700127447192666,
            -0.7749326854796343,
            -1.2231628372214387,
            0.8938123411523327,
            1.1577910074432098,
            0.6249345382767735,
            -1.3235764261523821,
            -0.9013426866221584,
            0.63345890488502,
            -0.962879774240886,
            0.14766051990854062,
            0.5608650083754054,
            0.6271800787958348,
            -0.8151490130812472,
            -0.10291397416334054,
            1.3796907314385356,
            0.1184481135453464,
            0.19478367924279105,
            0.4872273200076146,
            0.6454550742397765,
            0.10149177304104869,
            -0.23541715710773173,
            0.04836348665322417,
            -0.1279882808707418,
            0.4819320939911594,
            0.358814613841144,
            0.7552719142267796,
            0.6796804040902256,
            -0.6058526011355824,
            -0.042626980723157015,
            -0.15811658687516697,
            -0.13712948626618823,
            -0.04207987063304603,
            0.5165995860080801,
            0.4017519546191058,
            -0.48856935227330683,
            -0.7101824203476903,
            0.07662751666947605,
            -0.07605356643915108
        ],
        [
            -0.055225941477867864,
            -0.1966547218133335,
            0.37141059606216603,
            -0.3869085391858462,
            -0.25020919710716116,
            0.48530179667740714,
            0.16941512521937233,
            -0.3070660227473053,
            -0.006822805229549463,
            0.28728979850597375,
            1.0535020930969978,
            -0.15793551640056663,
            0.49015941938514274,
            -0.2032087808877458,
            0.3795253981829683,
            0.16074345578794397,
            0.04717894142727081,
            1.1421575874778194,
            -0.2609412641257382,
            -0.4150443415994855,
            -0.1252928266477004,
            0.8975663470785248,
            1.3739036982083341,
            0.024609605638854115,
            0.29494142962382874,
            -1.2371985141685309,
            -0.7976365252638744,
            0.2758536519085945,
            0.25608506143888055,
            0.9985559681751811,
            0.23634960828766757,
            -0.74763064821505,
            -1.5166367037110164,
            -0.8423091694262286,
            -0.31006752665509923,
            0.3771803695014093,
            0.2366130277168416,
            -0.21203069850041753,
            -1.1777715427552808,
            0.062040780324368,
            0.6208580266952048,
            0.3973031196782544,
            -0.22327297218276307,
            -0.2258912684321207,
            -0.26602279318558464,
            -0.3833763350021892,
            0.30401341050690334,
            0.22658924859155286,
            0.30539175826958964
        ]
    ],
    "hidden_output_weight": [
        [
            -1.3027482845709104,
            0.21186411414976317,
            1.8837806662045067,
            0.21209060935754867,
            -2.6927094334225536,
            -1.6135707436163855,
            -0.880301587043632,
            0.382034577846797,
            0.7973969806026306,
            -1.6890219466193734,
            -0.07675208385479453,
            1.5710615287844998,
            0.3989300055022447,
            0.04411026892492959,
            0.8439959493846247,
            -1.708322547480934,
            0.048125825199407835,
            -0.32881914886823327,
            0.5484460940286813,
            -1.7956045506937852
        ],
        [
            -1.3049619390034541,
            -0.45053085051859126,
            0.1894127791179634,
            1.2960056987204343,
            -1.4644203885156242,
            -1.8440246162936584,
            -0.20579269943620485,
            -0.5399831641300726,
            -0.3587742817114732,
            0.8832338008664933,
            -0.0010187981767200733,
            -0.7299425179207765,
            1.8098523416048795,
            1.0379724682846054,
            -2.320474887937778,
            1.3525751605014333,
            -0.6470345778589859,
            -1.0090543812747022,
            -1.974410921469317,
            -0.7961801010155413
        ],
        [
            -0.7266219757869469,
            0.991367661580665,
            0.8667458684746059,
            -1.4165416905776178,
            -0.5864684156715172,
            1.1572869680416975,
            0.324937458862626,
            -0.10720889952710906,
            -0.6921331824738778,
            0.6410669087637364,
            -1.4081522693896733,
            -1.5298791412359105,
            1.1340461227650531,
            -0.19333410661143427,
            -1.0527620351930258,
            -2.7622190226662324,
            1.0894726232878353,
            -1.9089762687240972,
            -1.2603741603132539,
            0.7377044864475856
        ],
        [
            0.5962255812927229,
            0.35988761570941147,
            -2.2447907764697472,
            2.079987493351976,
            -0.7136106912669161,
            -1.2407981256568783,
            -0.7411917550599897,
            0.8400537769502747,
            -2.222480651922482,
            -0.24577639285210498,
            0.30136695491043236,
            -0.5789370877164817,
            1.0112222949696854,
            1.7519571131247378,
            -0.796533216883685,
            -1.112110423415801,
            -0.020231978990294726,
            -2.4930011909462517,
            -0.5308233106332076,
            -0.9246897107772968
        ],
        [
            -0.29217840227847214,
            0.006961217006296385,
            -2.2754138997451565,
            -0.6009042913257368,
            -0.32642824399465137,
            0.9429542632315276,
            -0.21125189728862948,
            1.470700045967675,
            -1.4206925593159985,
            0.052382951622540114,
            -1.6037606837788634,
            -0.9225546979002381,
            -0.40480722561009996,
            0.4549987929097985,
            -1.209056228876824,
            -0.18056095948893952,
            1.0426607385341309,
            0.165170145726685,
            -0.7000179985138612,
            -0.989658375867299
        ],
        [
            -0.3250982597689051,
            -0.6751038579690126,
            0.675372643816144,
            -0.5453043251869503,
            -0.3293519939900393,
            -1.6636229891302659,
            0.6219009899936137,
            -1.607666308379019,
            -0.8535454853018145,
            -0.8214039546976151,
            0.8671400068043842,
            -1.0054638555923947,
            0.48585391624377344,
            -0.1737500500769042,
            -1.704767132424267,
            -0.5044875592697058,
            0.4126003985847107,
            0.42078684053944965,
            0.9431489648150561,
            0.26119019449329167
        ],
        [
            0.497660216320289,
            -0.3604401639831642,
            -0.12656290779683865,
            -1.1624629482826847,
            1.1353615660524499,
            -3.5330767579716076,
            -0.5908146851559856,
            -0.24884664954200794,
            -0.33819766696378006,
            -2.0139066479141405,
            -0.22695363216464623,
            -0.7328097774848051,
            1.3947539010203496,
            -0.5611056201770728,
            1.4958525042726554,
            -1.1033744397856469,
            -1.5453348721053413,
            0.8211891709602774,
            0.40771792523953165,
            -0.973511438421756
        ],
        [
            -0.6642552866313336,
            0.273620392319045,
            0.8325907501492973,
            -1.2225365924909894,
            1.093382217034603,
            1.258433011926461,
            -0.3888388547364433,
            -0.35720053462618784,
            -2.484564896254821,
            -0.1582692860872216,
            -0.2817437444703875,
            -1.8965574923043578,
            -2.212287959253826,
            -2.173732259432361,
            1.0327862761965423,
            -1.3785214105846737,
            -1.6066285829765938,
            -0.8055253822242059,
            -0.321200681564391,
            1.6767205584201985
        ],
        [
            0.028947312802550248,
            -2.823805949327356,
            0.7257671778297294,
            -0.2195176252238215,
            -1.2291864212243118,
            -0.11164415424277241,
            -0.042108227003253486,
            -2.570513160892417,
            0.5044597919223948,
            -0.023992036866642533,
            0.059726539608696075,
            0.11282466077899451,
            -2.0722113266644975,
            -2.524460212821129,
            -0.34416858743848844,
            0.8658005002590938,
            0.44608035891351844,
            0.6862229671184538,
            1.9422108804337515,
            0.39463205813544205
        ],
        [
            -0.09218785959182815,
            0.05536820944993834,
            -2.5906365973539582,
            -1.316933787892241,
            -1.7964861796542293,
            1.1830496317317187,
            -1.525272266556568,
            0.1210064421389778,
            -0.16780908543876624,
            0.26071422404034433,
            -0.8439148806158279,
            1.971980744964225,
            -2.1571188788097175,
            -1.8234985759044628,
            0.3681143139070988,
            -1.6493447722006747,
            0.697107688336719,
            1.7304254229677405,
            -0.5324144796020872,
            0.45655616234367397
        ],
        [
            -0.9226589479100592,
            -0.4030914769698569,
            0.3571823846489925,
            -0.43889338820646284,
            0.5050442287316268,
            0.5672041012917755,
            -0.3486398270264622,
            -0.0739327157130376,
            -1.2918894146014,
            -0.9717670951649694,
            -0.7038843927467703,
            0.2559617859019175,
            -1.126463270687738,
            -0.09767170080291837,
            -0.20587426505983186,
            -0.45393664225952146,
            -0.17697428208924118,
            0.7002346204180667,
            0.9038405569170559,
            -0.7799461241633293
        ],
        [
            -0.3528149952592267,
            0.5515310130066381,
            -0.7975604665853427,
            2.366081623067714,
            -0.378800314549518,
            -1.465229623118985,
            0.7429035480914049,
            -1.0147485712477533,
            0.4561354489745874,
            0.04196277825876473,
            -0.14880193383618026,
            -1.2979409954258734,
            -2.1196259010435385,
            0.2063651288422985,
            -0.8941435631218675,
            0.6348498876528893,
            -2.130018491906854,
            0.5866226633880849,
            -0.5264070708237761,
            -0.027918876417520156
        ],
        [
            0.5588627980595434,
            0.28072706855197793,
            0.3272516593478632,
            -0.9113211541281971,
            -0.5953246071109636,
            -0.4513647681366561,
            0.2231079212962465,
            0.9796873315225614,
            -0.8760309967816801,
            -2.4410126409468043,
            1.0781544569941288,
            -0.9925603284324099,
            -1.655173890740029,
            -0.8002193951773439,
            0.6768211490674924,
            0.43283298393365566,
            -0.19666493070801255,
            0.1668843661234731,
            -2.5310509916743715,
            -1.767961836802396
        ],
        [
            -1.224878444089786,
            -0.8567947944681179,
            -0.057833105874841625,
            2.673311224879606,
            -0.01161783726014409,
            1.912627255762188,
            -0.8405145250711433,
            -1.4476187465141352,
            -0.0023749352106413476,
            0.5029463717802066,
            -2.6763795573233113,
            2.2477189502364725,
            -1.296207391653088,
            0.2574687349558091,
            0.5338988761783199,
            -0.4727455620243201,
            -0.509014031590897,
            -1.1967362472286251,
            -1.2293437576730517,
            0.6345405953247305
        ],
        [
            -1.0310954105277053,
            -2.2559352134329202,
            -0.38825415735231844,
            -0.45796687758131116,
            0.9428876104303062,
            1.6442191067973202,
            -2.1495540495902064,
            -1.9005322859923526,
            0.4931338258747856,
            1.324357753655764,
            -0.39236631167001945,
            -0.3763259016617167,
            1.2410288060892944,
            -0.12280095465825354,
            -0.31128280304753586,
            0.5582753373564763,
            -0.6813861512142552,
            -1.3441125108145056,
            0.9796557609463786,
            -2.1237661027879633
        ]
    ],
    "hidden_bias": [
        [
            0.1460440919888939
        ],
        [
            0.40283199480516885
        ],
        [
            0.13193536183506382
        ],
        [
            0.8368940588833144
        ],
        [
            0.39446608296063596
        ],
        [
            0.22787730245922933
        ],
        [
            0.5000306472484244
        ],
        [
            -0.037628625128961736
        ],
        [
            0.6056186871708265
        ],
        [
            1.260085415420417
        ],
        [
            -0.394704428884704
        ],
        [
            1.8753935147927352
        ],
        [
            0.9466589874736687
        ],
        [
            1.2170932340467553
        ],
        [
            0.00953167130447894
        ],
        [
            0.48674676031176584
        ],
        [
            1.0094408535301758
        ],
        [
            0.36722862876125706
        ],
        [
            0.7046589534924239
        ],
        [
            0.49919587305928415
        ]
    ],
    "output_bias": [
        [
            -0.1183240451469649
        ],
        [
            0.17232222433919714
        ],
        [
            -0.06509300937720748
        ],
        [
            -0.13352139715745626
        ],
        [
            0.7275434847156417
        ],
        [
            0.14241919304449943
        ],
        [
            0.18801398406949701
        ],
        [
            0.5811985068136193
        ],
        [
            -0.6478118430973135
        ],
        [
            0.3754517012224945
        ],
        [
            0.3149027301037805
        ],
        [
            -0.0905390856920196
        ],
        [
            0.1238395598572969
        ],
        [
            -0.6700157284496169
        ],
        [
            0.5506412436842847
        ]
    ]
}